digraph Tree {
node [shape=box, style="filled, rounded", color="black", fontname="helvetica"] ;
edge [fontname="helvetica"] ;
0 [label="Free calcium <= 0.146\ngini = 0.187\nsamples = 48\nvalue = [5, 43]\nclass = 0.0", fillcolor="#50a8e8"] ;
1 [label="gini = 0.0\nsamples = 43\nvalue = [0, 43]\nclass = 0.0", fillcolor="#399de5"] ;
0 -> 1 [labeldistance=2.5, labelangle=45, headlabel="True"] ;
2 [label="gini = 0.0\nsamples = 5\nvalue = [5, 0]\nclass = 1.0", fillcolor="#e58139"] ;
0 -> 2 [labeldistance=2.5, labelangle=-45, headlabel="False"] ;
}